<?xml version="1.0"?>
<opencv_storage>
<cascade>
  <stageType>BOOST</stageType>
  <featureType>HAAR</featureType>
  <height>500</height>
  <width>500</width>
  <stageParams>
    <boostType>GAB</boostType>
    <minHitRate>9.9500000476837158e-01</minHitRate>
    <maxFalseAlarm>5.0000000000000000e-01</maxFalseAlarm>
    <weightTrimRate>9.4999998807907104e-01</weightTrimRate>
    <maxDepth>1</maxDepth>
    <maxWeakCount>100</maxWeakCount></stageParams>
  <featureParams>
    <maxCatCount>0</maxCatCount>
    <featSize>1</featSize>
    <mode>BASIC</mode></featureParams>
  <stageNum>7</stageNum>
  <stages>
    <!-- stage 0 -->
    <_>
      <maxWeakCount>4</maxWeakCount>
      <stageThreshold>-1.3148690462112427e+00</stageThreshold>
      <weakClassifiers>
        <_>
          <internalNodes>
            0 -1 32 -5.3560815751552582e-02</internalNodes>
          <leafValues>
            7.3255813121795654e-01 -8.1850993633270264e-01</leafValues></_>
        <_>
          <internalNodes>
            0 -1 33 -6.6747725009918213e-02</internalNodes>
          <leafValues>
            9.1924577951431274e-01 -5.1891511678695679e-01</leafValues></_>
        <_>
          <internalNodes>
            0 -1 5 2.5796223431825638e-02</internalNodes>
          <leafValues>
            -6.8470031023025513e-01 4.7370162606239319e-01</leafValues></_>
        <_>
          <internalNodes>
            0 -1 9 -1.7158702015876770e-02</internalNodes>
          <leafValues>
            7.0725619792938232e-01 -4.2687177658081055e-01</leafValues></_></weakClassifiers></_>
    <!-- stage 1 -->
    <_>
      <maxWeakCount>5</maxWeakCount>
      <stageThreshold>-1.1368916034698486e+00</stageThreshold>
      <weakClassifiers>
        <_>
          <internalNodes>
            0 -1 34 -2.5645859539508820e-02</internalNodes>
          <leafValues>
            4.9693250656127930e-01 -7.9163461923599243e-01</leafValues></_>
        <_>
          <internalNodes>
            0 -1 4 -3.6481218412518501e-03</internalNodes>
          <leafValues>
            -9.9084734916687012e-01 3.4392293542623520e-02</leafValues></_>
        <_>
          <internalNodes>
            0 -1 19 1.5424040611833334e-03</internalNodes>
          <leafValues>
            1.4223802089691162e-01 -9.6731793880462646e-01</leafValues></_>
        <_>
          <internalNodes>
            0 -1 18 -1.2728206347674131e-03</internalNodes>
          <leafValues>
            -9.3938058614730835e-01 2.6582270860671997e-01</leafValues></_>
        <_>
          <internalNodes>
            0 -1 30 -9.5539335161447525e-03</internalNodes>
          <leafValues>
            4.1749331355094910e-01 -5.5783492326736450e-01</leafValues></_></weakClassifiers></_>
    <!-- stage 2 -->
    <_>
      <maxWeakCount>5</maxWeakCount>
      <stageThreshold>-1.0999698638916016e+00</stageThreshold>
      <weakClassifiers>
        <_>
          <internalNodes>
            0 -1 0 3.3359263092279434e-02</internalNodes>
          <leafValues>
            -7.9132652282714844e-01 5.9075909852981567e-01</leafValues></_>
        <_>
          <internalNodes>
            0 -1 21 1.0871670208871365e-02</internalNodes>
          <leafValues>
            -5.2949976921081543e-01 7.1955877542495728e-01</leafValues></_>
        <_>
          <internalNodes>
            0 -1 6 -2.7912724763154984e-03</internalNodes>
          <leafValues>
            -9.4195055961608887e-01 2.6917809247970581e-01</leafValues></_>
        <_>
          <internalNodes>
            0 -1 17 1.2357374653220177e-02</internalNodes>
          <leafValues>
            -3.3858171105384827e-01 8.1033319234848022e-01</leafValues></_>
        <_>
          <internalNodes>
            0 -1 24 2.0632352679967880e-03</internalNodes>
          <leafValues>
            2.9026001691818237e-01 -9.5146548748016357e-01</leafValues></_></weakClassifiers></_>
    <!-- stage 3 -->
    <_>
      <maxWeakCount>5</maxWeakCount>
      <stageThreshold>-1.4332717657089233e+00</stageThreshold>
      <weakClassifiers>
        <_>
          <internalNodes>
            0 -1 22 1.8592599779367447e-02</internalNodes>
          <leafValues>
            -7.7588367462158203e-01 7.3504275083541870e-01</leafValues></_>
        <_>
          <internalNodes>
            0 -1 26 -1.1186460964381695e-02</internalNodes>
          <leafValues>
            7.6004314422607422e-01 -4.8191648721694946e-01</leafValues></_>
        <_>
          <internalNodes>
            0 -1 14 -3.1647294235881418e-05</internalNodes>
          <leafValues>
            4.4999945163726807e-01 -6.3326889276504517e-01</leafValues></_>
        <_>
          <internalNodes>
            0 -1 13 1.1908650631085038e-03</internalNodes>
          <leafValues>
            2.4925038218498230e-01 -9.6610605716705322e-01</leafValues></_>
        <_>
          <internalNodes>
            0 -1 37 -7.5790571281686425e-04</internalNodes>
          <leafValues>
            -9.1291844844818115e-01 2.0854692161083221e-01</leafValues></_></weakClassifiers></_>
    <!-- stage 4 -->
    <_>
      <maxWeakCount>7</maxWeakCount>
      <stageThreshold>-1.9884345531463623e+00</stageThreshold>
      <weakClassifiers>
        <_>
          <internalNodes>
            0 -1 3 5.3470067679882050e-02</internalNodes>
          <leafValues>
            -7.9642581939697266e-01 4.1988950967788696e-01</leafValues></_>
        <_>
          <internalNodes>
            0 -1 35 -5.1950374618172646e-03</internalNodes>
          <leafValues>
            5.5602502822875977e-01 -5.5080330371856689e-01</leafValues></_>
        <_>
          <internalNodes>
            0 -1 12 1.5386562794446945e-02</internalNodes>
          <leafValues>
            -3.2431516051292419e-01 7.9805594682693481e-01</leafValues></_>
        <_>
          <internalNodes>
            0 -1 15 -3.1729614420328289e-05</internalNodes>
          <leafValues>
            4.8540231585502625e-01 -5.2859055995941162e-01</leafValues></_>
        <_>
          <internalNodes>
            0 -1 10 5.3496048785746098e-03</internalNodes>
          <leafValues>
            -4.1640096902847290e-01 5.5760955810546875e-01</leafValues></_>
        <_>
          <internalNodes>
            0 -1 8 5.4340268252417445e-04</internalNodes>
          <leafValues>
            2.6530578732490540e-01 -9.6712940931320190e-01</leafValues></_>
        <_>
          <internalNodes>
            0 -1 36 -3.5392135032452643e-05</internalNodes>
          <leafValues>
            3.6279544234275818e-01 -6.1206650733947754e-01</leafValues></_></weakClassifiers></_>
    <!-- stage 5 -->
    <_>
      <maxWeakCount>5</maxWeakCount>
      <stageThreshold>-2.0563640594482422e+00</stageThreshold>
      <weakClassifiers>
        <_>
          <internalNodes>
            0 -1 16 3.0762564390897751e-02</internalNodes>
          <leafValues>
            -7.8763306140899658e-01 6.6787004470825195e-01</leafValues></_>
        <_>
          <internalNodes>
            0 -1 28 1.4936424791812897e-02</internalNodes>
          <leafValues>
            -6.9918763637542725e-01 3.4491422772407532e-01</leafValues></_>
        <_>
          <internalNodes>
            0 -1 1 -1.3729268684983253e-03</internalNodes>
          <leafValues>
            -7.6460272073745728e-01 2.8970527648925781e-01</leafValues></_>
        <_>
          <internalNodes>
            0 -1 27 2.4753425270318985e-02</internalNodes>
          <leafValues>
            -3.5169959068298340e-01 7.9735493659973145e-01</leafValues></_>
        <_>
          <internalNodes>
            0 -1 7 -7.3172559496015310e-05</internalNodes>
          <leafValues>
            4.2294219136238098e-01 -6.0229563713073730e-01</leafValues></_></weakClassifiers></_>
    <!-- stage 6 -->
    <_>
      <maxWeakCount>7</maxWeakCount>
      <stageThreshold>-1.6682178974151611e+00</stageThreshold>
      <weakClassifiers>
        <_>
          <internalNodes>
            0 -1 20 -8.4307659417390823e-03</internalNodes>
          <leafValues>
            5.5485892295837402e-01 -7.9405736923217773e-01</leafValues></_>
        <_>
          <internalNodes>
            0 -1 25 -1.8064957112073898e-03</internalNodes>
          <leafValues>
            6.2281078100204468e-01 -5.1988863945007324e-01</leafValues></_>
        <_>
          <internalNodes>
            0 -1 29 1.3972653541713953e-03</internalNodes>
          <leafValues>
            -4.4004154205322266e-01 5.6805425882339478e-01</leafValues></_>
        <_>
          <internalNodes>
            0 -1 2 6.4964173361659050e-04</internalNodes>
          <leafValues>
            3.0260127782821655e-01 -7.3213285207748413e-01</leafValues></_>
        <_>
          <internalNodes>
            0 -1 11 3.6482412368059158e-02</internalNodes>
          <leafValues>
            -2.6511800289154053e-01 8.0978274345397949e-01</leafValues></_>
        <_>
          <internalNodes>
            0 -1 23 5.8773276396095753e-03</internalNodes>
          <leafValues>
            -2.5510019063949585e-01 7.8208363056182861e-01</leafValues></_>
        <_>
          <internalNodes>
            0 -1 31 -1.1359388008713722e-03</internalNodes>
          <leafValues>
            -9.9111962318420410e-01 3.0338662862777710e-01</leafValues></_></weakClassifiers></_></stages>
  <features>
    <_>
      <rects>
        <_>
          0 0 22 3 -1.</_>
        <_>
          0 1 22 1 3.</_></rects>
      <tilted>0</tilted></_>
    <_>
      <rects>
        <_>
          0 2 24 1 -1.</_>
        <_>
          8 2 8 1 3.</_></rects>
      <tilted>0</tilted></_>
    <_>
      <rects>
        <_>
          0 3 4 18 -1.</_>
        <_>
          0 3 2 9 2.</_>
        <_>
          2 12 2 9 2.</_></rects>
      <tilted>0</tilted></_>
    <_>
      <rects>
        <_>
          0 7 6 13 -1.</_>
        <_>
          2 7 2 13 3.</_></rects>
      <tilted>0</tilted></_>
    <_>
      <rects>
        <_>
          0 7 4 12 -1.</_>
        <_>
          0 11 4 4 3.</_></rects>
      <tilted>0</tilted></_>
    <_>
      <rects>
        <_>
          1 0 18 12 -1.</_>
        <_>
          1 6 18 6 2.</_></rects>
      <tilted>0</tilted></_>
    <_>
      <rects>
        <_>
          1 13 3 4 -1.</_>
        <_>
          1 15 3 2 2.</_></rects>
      <tilted>0</tilted></_>
    <_>
      <rects>
        <_>
          2 3 4 2 -1.</_>
        <_>
          2 4 4 1 2.</_></rects>
      <tilted>0</tilted></_>
    <_>
      <rects>
        <_>
          2 14 3 2 -1.</_>
        <_>
          2 15 3 1 2.</_></rects>
      <tilted>0</tilted></_>
    <_>
      <rects>
        <_>
          2 14 12 2 -1.</_>
        <_>
          6 14 4 2 3.</_></rects>
      <tilted>0</tilted></_>
    <_>
      <rects>
        <_>
          3 9 12 1 -1.</_>
        <_>
          7 9 4 1 3.</_></rects>
      <tilted>0</tilted></_>
    <_>
      <rects>
        <_>
          3 11 6 7 -1.</_>
        <_>
          5 11 2 7 3.</_></rects>
      <tilted>0</tilted></_>
    <_>
      <rects>
        <_>
          3 12 6 3 -1.</_>
        <_>
          5 12 2 3 3.</_></rects>
      <tilted>0</tilted></_>
    <_>
      <rects>
        <_>
          4 1 12 1 -1.</_>
        <_>
          8 1 4 1 3.</_></rects>
      <tilted>0</tilted></_>
    <_>
      <rects>
        <_>
          4 4 2 2 -1.</_>
        <_>
          4 5 2 1 2.</_></rects>
      <tilted>0</tilted></_>
    <_>
      <rects>
        <_>
          5 4 1 2 -1.</_>
        <_>
          5 5 1 1 2.</_></rects>
      <tilted>0</tilted></_>
    <_>
      <rects>
        <_>
          6 8 6 5 -1.</_>
        <_>
          8 8 2 5 3.</_></rects>
      <tilted>0</tilted></_>
    <_>
      <rects>
        <_>
          6 16 8 3 -1.</_>
        <_>
          6 17 8 1 3.</_></rects>
      <tilted>0</tilted></_>
    <_>
      <rects>
        <_>
          8 0 6 2 -1.</_>
        <_>
          10 0 2 2 3.</_></rects>
      <tilted>0</tilted></_>
    <_>
      <rects>
        <_>
          8 0 6 4 -1.</_>
        <_>
          10 0 2 4 3.</_></rects>
      <tilted>0</tilted></_>
    <_>
      <rects>
        <_>
          8 12 6 1 -1.</_>
        <_>
          10 12 2 1 3.</_></rects>
      <tilted>0</tilted></_>
    <_>
      <rects>
        <_>
          8 15 7 3 -1.</_>
        <_>
          8 16 7 1 3.</_></rects>
      <tilted>0</tilted></_>
    <_>
      <rects>
        <_>
          8 16 6 3 -1.</_>
        <_>
          8 17 6 1 3.</_></rects>
      <tilted>0</tilted></_>
    <_>
      <rects>
        <_>
          9 13 6 1 -1.</_>
        <_>
          11 13 2 1 3.</_></rects>
      <tilted>0</tilted></_>
    <_>
      <rects>
        <_>
          10 1 4 6 -1.</_>
        <_>
          12 1 2 6 2.</_></rects>
      <tilted>0</tilted></_>
    <_>
      <rects>
        <_>
          10 11 4 2 -1.</_>
        <_>
          10 11 2 1 2.</_>
        <_>
          12 12 2 1 2.</_></rects>
      <tilted>0</tilted></_>
    <_>
      <rects>
        <_>
          10 16 6 3 -1.</_>
        <_>
          10 17 6 1 3.</_></rects>
      <tilted>0</tilted></_>
    <_>
      <rects>
        <_>
          11 14 5 6 -1.</_>
        <_>
          11 16 5 2 3.</_></rects>
      <tilted>0</tilted></_>
    <_>
      <rects>
        <_>
          12 15 11 8 -1.</_>
        <_>
          12 19 11 4 2.</_></rects>
      <tilted>0</tilted></_>
    <_>
      <rects>
        <_>
          13 8 2 6 -1.</_>
        <_>
          14 8 1 6 2.</_></rects>
      <tilted>0</tilted></_>
    <_>
      <rects>
        <_>
          13 9 6 6 -1.</_>
        <_>
          16 9 3 6 2.</_></rects>
      <tilted>0</tilted></_>
    <_>
      <rects>
        <_>
          14 0 4 2 -1.</_>
        <_>
          16 0 2 2 2.</_></rects>
      <tilted>0</tilted></_>
    <_>
      <rects>
        <_>
          14 7 6 12 -1.</_>
        <_>
          16 7 2 12 3.</_></rects>
      <tilted>0</tilted></_>
    <_>
      <rects>
        <_>
          15 6 6 13 -1.</_>
        <_>
          17 6 2 13 3.</_></rects>
      <tilted>0</tilted></_>
    <_>
      <rects>
        <_>
          16 7 3 11 -1.</_>
        <_>
          17 7 1 11 3.</_></rects>
      <tilted>0</tilted></_>
    <_>
      <rects>
        <_>
          16 9 3 4 -1.</_>
        <_>
          17 9 1 4 3.</_></rects>
      <tilted>0</tilted></_>
    <_>
      <rects>
        <_>
          17 1 5 2 -1.</_>
        <_>
          17 2 5 1 2.</_></rects>
      <tilted>0</tilted></_>
    <_>
      <rects>
        <_>
          20 12 1 9 -1.</_>
        <_>
          20 15 1 3 3.</_></rects>
      <tilted>0</tilted></_></features></cascade>
</opencv_storage>
